19 64
3 0.12602852 -0.03688831 -0.070048794 -0.11542819 -0.1394498 -0.11031499 0.19191118 -0.3058765 -0.06144379 -0.016865503 -0.27296016 0.15001433 0.12791182 -0.35286614 -0.25141177 -0.02550466 0.23418191 -0.10637775 -0.018114248 -0.14031117 -0.11711054 0.09104299 -0.20205006 0.1932873 0.11636929 -0.38706648 0.07307682 0.25037768 0.014219736 -0.20878601 0.197278 -0.11248511 0.064928114 0.092095576 -0.12070199 0.12368629 0.36180553 -0.27402005 0.079214595 -0.07666226 -0.39145654 -0.18259102 0.11695826 0.077517174 -0.13750623 0.3121869 0.1726867 0.018733753 -0.06433855 0.20708632 0.19411574 -0.09688583 0.0887727 0.0013231712 -0.06289935 0.03396275 0.084678575 -0.039530735 -0.31119114 0.096528634 0.09366614 0.19431256 0.06780496 -0.038752116
2 0.060441647 0.022098966 0.00685024 -0.021538159 0.0057815528 -0.051670022 0.006269127 -0.22960082 -0.11384568 0.20845705 -0.19294935 0.12044598 0.12975812 -0.121692754 -0.07815026 -0.1596265 0.17621407 -0.16464488 -0.21178651 0.22371815 -0.11760757 0.0071413666 -0.12827438 0.2534516 0.17922212 -0.3579953 -0.0061172214 0.124592856 0.061421193 -0.27063596 0.23795864 -0.012895411 0.1001545 -0.0049361326 -0.030834176 -0.04537787 0.13133326 -0.09695802 0.14235887 -0.11246049 -0.37164822 -0.06382133 0.049311947 0.07868171 -0.083240196 0.31357586 0.14035673 -0.060273428 -0.0103990445 0.18719752 0.07410097 0.19394092 0.13189416 0.07387939 -0.21408136 -0.07455326 0.120546125 0.053736728 -0.19901234 0.16134927 0.048222024 0.2292922 0.18458945 0.19073786
0 0.13648179 -0.029712895 0.2801815 -0.007862944 0.031774506 -0.027104152 -0.16702881 -0.29099318 -0.25134745 0.31390172 -0.28281772 0.13589923 0.1324135 -0.10639017 -0.18205547 -0.14221862 0.23834 -0.38821903 -0.38838506 0.30758533 -0.14266476 -0.11327048 -0.072239205 0.36866844 0.20189896 -0.48106506 0.18918322 0.18294807 0.13525066 -0.33251265 0.19130085 0.08337953 0.23724267 0.016247835 -0.11367175 -0.023648389 0.25872487 -0.024814961 0.16358215 -0.2351879 -0.46953037 -0.03850848 0.12728265 0.07074919 -0.12672272 0.33728692 0.18328433 -0.052313726 0.06237984 0.27122048 0.20784292 0.27438387 0.24786155 0.097373635 -0.09257147 -0.13013338 0.20877093 -0.042187247 -0.33564365 0.16870296 0.11816615 0.38138825 0.3327477 0.13957936
4 0.17582302 -0.032927632 -0.27268007 -0.08425588 -0.22743928 -0.19290867 0.50208265 -0.39185312 0.10502401 -0.1546907 -0.21990779 0.1635935 0.16903603 -0.5113637 -0.20582722 -0.0572727 0.24001063 0.06635746 0.15176761 -0.39657456 -0.113646604 0.18913348 -0.32379913 0.1335022 0.12977469 -0.37602243 -0.02374972 0.22531481 0.022372384 -0.10902644 0.204784 -0.28407216 0.006629711 0.1090412 -0.128766 0.085509874 0.3955368 -0.39390936 0.050075937 0.07700931 -0.29119867 -0.20529437 0.055797 0.11091648 -0.1402982 0.39873824 0.15875256 -0.003503215 -0.2123967 0.3060579 0.21756199 -0.20140319 0.026531737 -0.09237628 -0.111322805 0.15828088 0.011130602 -0.02369583 -0.25609228 0.034993086 0.06894243 0.070040144 -0.15118827 -0.027766762
8 -0.06392294 0.09859311 -0.1704965 -0.04549027 0.06605703 -0.02272174 -0.004570244 -0.12543254 -0.07536741 0.2555923 -0.17442106 0.11511801 0.09634642 -0.05100866 0.06215672 -0.20739028 0.118813656 -0.10206513 -0.20712797 0.38740495 -0.082310304 0.058590245 -0.13480455 0.18253861 0.20774369 -0.27792093 -0.16848437 0.08205904 0.04179004 -0.27315825 0.34382117 -0.055335313 0.017943708 -0.08957113 0.09099661 -0.07975096 -0.097018234 -0.08621884 0.20227794 -0.08994673 -0.37622467 -0.077418365 0.013073458 0.116831884 -0.02737046 0.30732378 0.11021733 -0.12201671 0.013722068 0.07963658 -0.10027812 0.24496199 0.05362763 0.12634031 -0.44685346 -0.10862078 0.077096365 0.19754596 -0.13278908 0.24359831 -0.028253736 0.1464487 0.18139009 0.31200105
5 0.082951434 0.035765886 -0.45225838 -0.017052073 -0.077719025 -0.17359118 0.4919638 -0.28307933 0.15281567 0.0445933 -0.098213576 0.09219387 0.16462581 -0.29724857 0.056708563 -0.26009744 0.138524 0.2055626 0.08338959 -0.13108 -0.106609605 0.22174087 -0.30124354 0.076886036 0.17912824 -0.19385794 -0.31289968 0.082792394 0.003903171 -0.10188526 0.3183382 -0.30441746 -0.0797763 -0.057403885 0.029191278 -0.13353567 0.024838798 -0.28000528 0.1125434 0.15307067 -0.16794346 -0.14096434 -0.07926098 0.111845255 0.0028985748 0.39476374 0.06625386 -0.117750175 -0.22087014 0.21005702 -0.038657084 0.046805076 -0.06958218 -0.014253445 -0.40160772 0.09574421 -0.045391537 0.18091941 0.012073824 0.06317715 -0.045634758 -0.054363504 -0.1904223 0.25430614
6 -0.036167763 0.1340614 -0.47349083 -0.006326064 0.044532586 -0.11617657 0.3473775 -0.19518913 0.12867318 0.19638877 -0.081539035 0.088411264 0.13613856 -0.12682171 0.17116818 -0.33079547 0.085198194 0.16440645 -0.041834157 0.18897434 -0.100922436 0.2059136 -0.25614068 0.09120853 0.23565347 -0.19396664 -0.40592846 0.019296361 0.0014927867 -0.17317198 0.41504672 -0.2543653 -0.081384115 -0.1205861 0.11866562 -0.21741132 -0.171967 -0.16349815 0.19388726 0.11065574 -0.23971392 -0.07876283 -0.11261304 0.11939364 0.023959035 0.3889132 0.0421549 -0.18045305 -0.15997776 0.12323081 -0.17091356 0.22517435 -0.0599989 0.056964472 -0.58738846 0.007939718 -0.036399934 0.29637748 0.06114496 0.19278976 -0.07960375 -0.033994626 -0.08322709 0.42167524
7 -0.10634158 0.18282963 -0.43348762 -0.06201862 0.07439778 -0.047216248 0.23825066 -0.10407093 0.08002335 0.21430232 -0.10888419 0.11712126 0.12750615 -0.09810023 0.17107634 -0.31598884 0.089004226 0.10499149 -0.06395483 0.33729544 -0.052440267 0.18229584 -0.20024955 0.110565834 0.20590691 -0.19436106 -0.3905501 0.021822968 -0.007961348 -0.22922556 0.44577655 -0.18266481 -0.07217595 -0.12833571 0.16503865 -0.15929215 -0.2197448 -0.13161013 0.19895433 0.043635726 -0.30088457 -0.09289672 -0.09424448 0.13209918 0.0041368073 0.3349033 0.06888936 -0.15821625 -0.071541734 0.0675752 -0.23906049 0.22070368 -0.051433895 0.0949105 -0.6342118 -0.038676325 -0.011469009 0.3329187 -0.0009093046 0.26946545 -0.10602238 -0.009847775 0.013208162 0.42157146
1 0.12287674 -0.038291972 0.26407346 -0.012613888 0.021253476 -0.025372196 -0.18710068 -0.2811673 -0.27338612 0.31747714 -0.2828475 0.12102427 0.12847681 -0.097828984 -0.20091994 -0.13266787 0.23186614 -0.37855297 -0.3776258 0.29296976 -0.1531615 -0.10031165 -0.0643704 0.34473982 0.20389707 -0.46907285 0.15796681 0.19070402 0.12615782 -0.33467188 0.18097568 0.097544506 0.2199463 0.011118453 -0.09758402 0.00019157556 0.25237674 -0.032913107 0.15567382 -0.23144881 -0.4619869 -0.072572194 0.12469995 0.07610224 -0.10414244 0.33638138 0.18760833 -0.041983977 0.06502043 0.24721554 0.18997847 0.2649822 0.23122908 0.1034897 -0.08675229 -0.10817053 0.20045117 -0.028630257 -0.3396029 0.15399973 0.11279943 0.37289283 0.32457763 0.11748792
12 0.15727365 -0.07110973 -0.04258249 -0.11928222 -0.18733442 -0.14053062 0.19982663 -0.35163698 -0.08030631 -0.065626636 -0.31014577 0.1718185 0.13208866 -0.4253082 -0.3252019 0.031766493 0.25562504 -0.13387531 0.0008605341 -0.23415756 -0.12224376 0.08866114 -0.21840501 0.19707157 0.12500872 -0.44579783 0.1445413 0.2984786 0.014590734 -0.20783237 0.16561133 -0.106772736 0.085333526 0.1314069 -0.16274449 0.18368635 0.4685002 -0.31281185 0.06177342 -0.09249169 -0.41671655 -0.20522246 0.16041726 0.08315903 -0.1625911 0.33906162 0.20187242 0.043282636 -0.07952515 0.24280669 0.27909547 -0.15817359 0.11861713 -0.03524597 0.009904191 0.06947643 0.084434465 -0.089097135 -0.38472837 0.06672055 0.122172154 0.22534426 0.062044222 -0.110565506
11 0.12029289 -0.037536804 -0.06618646 -0.0822009 -0.11625723 -0.124479085 0.16640711 -0.31199405 -0.066774935 0.014582193 -0.26062548 0.13873921 0.13279031 -0.32026443 -0.22343405 -0.03036682 0.2065284 -0.107957065 -0.04364484 -0.10499112 -0.12205331 0.07906396 -0.2049677 0.18198071 0.14694747 -0.37668175 0.056 0.23022978 0.019265285 -0.2015275 0.18526459 -0.10777459 0.0698164 0.07405718 -0.11669898 0.09655032 0.33151624 -0.24658677 0.08952473 -0.07862478 -0.37684625 -0.16586128 0.11479758 0.079228215 -0.12368324 0.32765222 0.1628115 -0.002772031 -0.08289954 0.21052949 0.18365669 -0.052719347 0.09158205 -0.005753255 -0.08839863 0.033144765 0.07605578 -0.026527919 -0.287266 0.09457106 0.082834534 0.19624114 0.0623618 -0.006469497
10 0.09731739 -0.01742848 0.2486232 -0.010071744 0.06096426 -0.014976293 -0.20868324 -0.26067102 -0.27224925 0.36285767 -0.28762323 0.12504892 0.12167119 -0.05509197 -0.16516185 -0.17181481 0.22195496 -0.37788498 -0.41256577 0.383808 -0.15200703 -0.10469967 -0.059339534 0.35079628 0.22208047 -0.47157052 0.12096699 0.17609662 0.12862548 -0.36593047 0.22481476 0.10288045 0.21023162 -0.013881209 -0.062109876 -0.040553063 0.18832862 -0.0010475982 0.17331925 -0.25005645 -0.48522633 -0.05812231 0.113228455 0.083856784 -0.09055808 0.3364938 0.17970413 -0.06556272 0.08648196 0.23674205 0.13056101 0.32268292 0.23202215 0.12386075 -0.15696034 -0.1372286 0.19673009 0.018832384 -0.3218831 0.19948606 0.10136003 0.3658813 0.3554777 0.18950343
18 -0.052111093 0.10355418 -0.11660147 -0.044718824 0.066936366 -0.002003042 -0.003344458 -0.12960912 -0.07829062 0.25216484 -0.16088997 0.1253028 0.10743745 -0.035986476 0.043546204 -0.2342814 0.12219152 -0.099095605 -0.21751103 0.4009312 -0.08854218 0.05065966 -0.117684886 0.20998849 0.19093928 -0.28317055 -0.14824869 0.061610974 0.04581413 -0.28183162 0.33009526 -0.026489252 0.03441723 -0.068080656 0.069236 -0.10370935 -0.071184516 -0.06251179 0.18711157 -0.09180538 -0.3638566 -0.04377015 -0.013370902 0.108095266 -0.041709572 0.2935601 0.106835894 -0.11964598 0.020507516 0.103982 -0.09076274 0.27893752 0.07394031 0.12269821 -0.41815808 -0.11799936 0.08144056 0.1756667 -0.11400103 0.25154313 -0.018050384 0.17143466 0.18926147 0.32111982
9 0.100884825 -0.010956632 0.2607545 -0.012420938 0.07822602 -0.00030537852 -0.22132738 -0.24861254 -0.28168413 0.37802115 -0.27828383 0.11365622 0.114004605 -0.046878606 -0.14465338 -0.17726834 0.22473876 -0.39378425 -0.42086786 0.41139865 -0.1448974 -0.11330717 -0.04677435 0.35426646 0.22160955 -0.45785695 0.12430181 0.1633814 0.14402014 -0.36168346 0.21956445 0.10862975 0.22474697 -0.02447034 -0.05926159 -0.053646717 0.15916923 0.007511125 0.19096993 -0.25183994 -0.47216356 -0.034435056 0.11385747 0.08087993 -0.091563724 0.33211187 0.17698509 -0.07560174 0.079638585 0.23484583 0.12464644 0.3435362 0.23652622 0.14109798 -0.16669 -0.14889789 0.20857796 0.011716157 -0.30700463 0.18909574 0.09474107 0.3790171 0.36312625 0.19560519
16 -0.053009868 0.15665978 -0.61565894 -0.046525188 0.017839612 -0.11780064 0.49046126 -0.17737499 0.20948455 0.1031117 -0.052410007 0.11729045 0.15979594 -0.20807807 0.20532492 -0.3378858 0.09271351 0.2688634 0.08287657 0.112154864 -0.07255776 0.2752132 -0.31083286 0.058980342 0.20020689 -0.14521848 -0.48444015 0.018810125 -0.026122106 -0.15261744 0.45275357 -0.32674006 -0.13349122 -0.12955841 0.14768478 -0.20295697 -0.19847992 -0.24220398 0.17375581 0.15815267 -0.21241833 -0.114601165 -0.13140872 0.1296082 0.02250943 0.38671368 0.03764439 -0.16342679 -0.1923188 0.115667164 -0.22116636 0.13197121 -0.124504425 0.034754246 -0.6568776 0.039486956 -0.06886277 0.34204152 0.08198254 0.18889049 -0.115040734 -0.11364485 -0.15511128 0.42383194
15 0.06799728 0.057392318 -0.5191614 -0.0433074 -0.0988496 -0.16967063 0.56880224 -0.28419915 0.20606057 -0.023508085 -0.08954397 0.12296578 0.17881982 -0.33919823 0.06571414 -0.26204276 0.15002978 0.25057837 0.13808993 -0.15582854 -0.085766345 0.2541755 -0.3358917 0.06807561 0.17461862 -0.212051 -0.33045238 0.07576367 -0.010927532 -0.10543521 0.35745358 -0.34374863 -0.09187527 -0.039712008 0.03565344 -0.12038259 0.037121918 -0.32306704 0.11359424 0.17259611 -0.18466885 -0.1437721 -0.08908057 0.12312607 -0.018098503 0.40451458 0.07983129 -0.11339202 -0.23305596 0.21151668 -0.03979332 0.0039329594 -0.08640062 -0.038197678 -0.43158677 0.10578158 -0.04455809 0.1823388 0.002725968 0.08643203 -0.054176856 -0.067792006 -0.22038855 0.2554995
17 -0.09787802 0.16167924 -0.32507 -0.04330505 0.1034407 -0.029856479 0.112531774 -0.09962372 0.025264842 0.25181687 -0.109298706 0.11645006 0.11527357 -0.043212764 0.15508296 -0.28526187 0.08559087 0.02363609 -0.14934334 0.41004625 -0.07543695 0.12448997 -0.16642621 0.14785217 0.21980797 -0.22441334 -0.31389683 0.025564529 0.024835499 -0.24992369 0.40736517 -0.1295233 -0.039816502 -0.117419936 0.1456837 -0.17048198 -0.21254678 -0.09066069 0.2194429 -0.01128747 -0.3290702 -0.06397729 -0.062015772 0.12718669 -0.0063691316 0.3240633 0.06594838 -0.16030642 -0.03342876 0.059701636 -0.20358421 0.28770494 0.00093069713 0.1173495 -0.58569306 -0.085031584 0.027248828 0.29439902 -0.017966427 0.27345118 -0.07673989 0.061833143 0.09538213 0.41806197
14 0.17754705 -0.015530328 -0.39510596 -0.10599393 -0.26422882 -0.1989147 0.6649184 -0.3911924 0.18767548 -0.20970266 -0.20512562 0.1595406 0.18764716 -0.5787815 -0.1925584 -0.11238232 0.25501546 0.19302411 0.23453511 -0.48830858 -0.10195653 0.26558957 -0.37894455 0.113903426 0.11659565 -0.3446536 -0.103173524 0.21532874 -0.003946961 -0.08175096 0.25846165 -0.35886663 -0.049164806 0.099953294 -0.100951746 0.073291585 0.39893433 -0.44552788 0.01430649 0.15205012 -0.25713477 -0.24397872 -0.0014670333 0.11044871 -0.117135234 0.41195557 0.15691373 -0.022004109 -0.25136635 0.3119724 0.17610984 -0.25887606 -0.039219454 -0.113311976 -0.1572745 0.19951949 -0.015553367 0.011201842 -0.2198269 0.03157956 0.03691196 0.0071698776 -0.2478099 -0.025560683
13 0.1776063 -0.038720652 -0.31612158 -0.086358055 -0.2280267 -0.19511826 0.559025 -0.38585633 0.11792018 -0.14635457 -0.2092758 0.14972894 0.17907955 -0.51062924 -0.19260259 -0.10681473 0.24341011 0.12240494 0.15734166 -0.41018623 -0.10782699 0.20875068 -0.33642477 0.13328491 0.12250209 -0.34572732 -0.06892604 0.21526754 0.013524825 -0.105922244 0.23759028 -0.30305067 -0.007188502 0.08141844 -0.09941496 0.060939837 0.36488172 -0.39504284 0.031842954 0.11387331 -0.25510404 -0.21880184 0.0123698525 0.10805389 -0.10895266 0.40586367 0.15773396 -0.0220121 -0.2268108 0.31064993 0.18871154 -0.1824324 -0.005248991 -0.098216295 -0.13797851 0.1728637 0.0040805563 0.0016245863 -0.21779966 0.024972463 0.047603954 0.03964918 -0.19424108 0.0017989434
