19 64
3 -0.060478438 -0.12377019 0.24905999 -0.13285859 0.14665982 -0.17765574 0.05037099 -0.30802232 0.26554394 -0.15781476 0.25363922 -0.14654808 0.2461349 -0.17900452 -0.14823687 -0.25926372 -0.14920744 0.06847264 -0.03076646 0.13395005 0.07197182 -0.118331335 -0.19617501 -0.05233096 0.019741168 0.02488584 -0.049858417 0.10490172 0.007534365 0.1744694 0.01926073 -0.13700083 -0.032638285 -0.12592444 -0.21279365 0.24137081 -0.07723542 0.16276217 -0.1846828 -0.15997411 0.27066657 0.03420344 0.070686705 0.13759123 -0.06847127 0.12850787 -0.017596807 0.38696638 0.46231258 -0.24498579 0.027858417 -0.031185523 0.0063890144 -0.068576984 0.08175771 0.09915035 -0.34134924 0.35040036 0.13269167 0.11267924 0.11688941 -0.04756415 0.2062873 0.1377337
2 -0.09120185 0.08247183 0.22878419 -0.0960039 0.022756515 -0.019141644 0.17486091 -0.20626253 0.20749639 -0.007092956 0.2239821 -0.2707713 0.25072744 -0.071546175 -0.006210628 -0.11699856 -0.10822155 0.16922246 0.25225413 0.1593756 -0.05411826 -0.09095499 -0.046299558 -0.1402914 0.0139010195 0.001038556 -0.00054615096 -0.07027086 -0.04161944 0.13031757 0.21756376 -0.21205099 -0.055864394 -0.11045925 -0.057306446 0.06624604 -0.22200775 0.16671205 -0.19892593 0.010786819 0.20719062 0.09492133 0.14888588 -0.13559794 0.12782265 0.028675664 -0.092196934 0.32638648 0.39888373 -0.13940942 -0.018685285 0.057227325 0.12224576 -0.081002675 -0.00202299 0.09857234 -0.2960666 0.18259086 0.027254304 -0.00961395 0.29529858 -0.15332687 0.06681529 -0.077569336
0 -0.037451778 0.2817594 0.2765605 -0.32629475 0.15532404 -0.009496779 0.34054112 -0.3261833 0.2981026 0.12527719 0.2919587 -0.42688367 0.35213912 -0.094035484 0.17365514 -0.17206867 -0.13344787 0.25274742 0.24932225 0.28835893 0.0469018 -0.20266041 -0.05193489 -0.14967641 0.08948437 -0.11203541 -0.066481054 -0.32120278 -0.06708374 0.20340803 0.1165466 -0.21722516 -0.035435755 -0.10751921 -0.037694026 0.16331337 -0.16981421 0.17936742 -0.23373729 -0.089160115 0.14351621 0.14844137 0.12984797 -0.17289147 0.1769173 0.052452564 -0.17002124 0.47282624 0.550533 -0.105007656 -0.12264463 0.09010079 0.33864152 -0.13695684 0.107355356 0.13369119 -0.40327698 0.24175847 0.007842456 0.00051279005 0.35173884 -0.318575 0.022196582 -0.048462737
4 -0.045556586 -0.33774823 0.29347447 -0.03146031 0.1330018 -0.38657063 -0.041388184 -0.31044888 0.2576793 -0.27310392 0.23149659 0.08943738 0.15451808 -0.19387951 -0.41459307 -0.3059984 -0.1708229 -0.06497493 -0.15625897 0.037193313 -0.06958577 -0.09152392 -0.25919023 -0.05267954 -0.037849348 0.10567493 0.008236788 0.34184605 0.0735261 0.17325199 0.026941651 -0.14267734 -0.11943863 -0.16800149 -0.27133453 0.23589933 0.029037626 0.21064524 -0.18220386 -0.14125542 0.39946178 -0.13562247 0.1324756 0.22005904 -0.07982331 0.120316446 0.031671964 0.3991807 0.40702707 -0.3289109 0.1895716 -0.16580571 -0.2063096 -0.015097093 -0.0697973 0.027109452 -0.3007398 0.44841462 0.18941617 0.16301192 0.048918985 0.04803298 0.25755402 0.24613836
8 -0.21131524 0.030873261 0.18860663 0.07917665 -0.1084793 0.12816091 0.11428841 -0.06986077 0.142122 -0.041284163 0.16435267 -0.28818154 0.24863209 -0.0015962188 -0.047473345 -0.03889299 -0.11616769 0.21217328 0.4162904 0.090481475 -0.15331434 0.005453854 0.02811402 -0.21578582 -0.03444667 0.045932934 0.06559476 0.009892698 -0.058868032 0.05343504 0.41063043 -0.3125975 -0.031096106 -0.083860815 -0.044640943 -0.06782186 -0.39488164 0.16385308 -0.19897673 0.17628822 0.2358366 0.17699878 0.16480437 -0.20238762 0.14835198 -0.0036782136 -0.08260691 0.23510802 0.29473954 -0.1402213 0.041703075 0.13496481 0.05236902 -0.06827764 -0.08822359 0.1014405 -0.23522162 0.06735039 0.016413493 -0.06534873 0.34893548 -0.059937946 0.064581886 -0.248615
5 -0.14548567 -0.32902172 0.2867773 0.23441194 -0.11112209 -0.2514723 -0.079946265 -0.10445813 0.11588573 -0.24802709 0.15686576 0.108213015 0.082088396 -0.048011057 -0.45481122 -0.09072958 -0.09542215 -0.02314982 0.13194548 -0.07406244 -0.31312525 0.058340862 -0.07649006 -0.17433548 -0.087476425 0.15251042 0.12719312 0.38843235 0.04431259 0.07241047 0.31964266 -0.21709481 -0.13336858 -0.17429313 -0.15752359 -0.041608233 -0.14550577 0.21173762 -0.1790934 0.15258989 0.4046561 -0.09425581 0.2505247 -0.03805465 0.1253526 0.010567329 0.06523363 0.20845143 0.22792597 -0.25152028 0.24608594 -0.12606876 -0.2862688 0.050565593 -0.27418575 -0.063802294 -0.1268076 0.21592902 0.1087285 0.05218458 0.1677177 0.103614815 0.15169573 -0.05458074
6 -0.23343562 -0.22472747 0.26603204 0.31156513 -0.22205393 -0.0707156 -0.016272334 0.012773868 0.0612208 -0.1770955 0.14313653 -0.01861209 0.13045847 0.041441128 -0.3678313 -0.0020848822 -0.09028977 0.0637595 0.37497544 -0.06506697 -0.3752301 0.08385376 0.035727102 -0.24939238 -0.113530986 0.15813121 0.17420937 0.2981652 0.0077093234 0.010682162 0.5266074 -0.31731206 -0.11162792 -0.11973211 -0.061904564 -0.17835815 -0.35500336 0.22753406 -0.21181712 0.2857316 0.39355278 0.006532275 0.26745936 -0.21275806 0.22027543 -0.04340957 0.020815935 0.16767102 0.19381659 -0.206237 0.20935673 -0.0061149993 -0.22444256 0.024226302 -0.32355872 -0.020269383 -0.11581144 0.07956897 0.042582642 -0.045855794 0.31847367 0.061756052 0.08588937 -0.25577962
7 -0.2845487 -0.14243677 0.21401826 0.28199005 -0.23225306 0.0867058 -0.01268454 0.038362026 0.0425565 -0.15335351 0.11663305 -0.10833254 0.16819172 0.05766867 -0.278341 0.0038064562 -0.12390443 0.115196064 0.4584794 -0.016258102 -0.3321113 0.108154155 0.060351364 -0.23814052 -0.10685539 0.16113503 0.15536511 0.23712358 -0.03935943 0.00311574 0.56284964 -0.35848054 -0.08853645 -0.089206606 -0.06420742 -0.17750823 -0.4413861 0.21155052 -0.22648172 0.33727324 0.3581784 0.10855982 0.23002301 -0.21118319 0.19866566 -0.064810745 0.001259162 0.13243905 0.2009159 -0.1668641 0.17899166 0.08236911 -0.15434295 -0.019909581 -0.27973768 0.039562337 -0.1644665 0.057062104 0.019017769 -0.090548754 0.31596947 0.06496713 0.11047001 -0.3057728
1 -0.034219712 0.27207178 0.26135433 -0.30412003 0.1399608 -0.0019232149 0.30577314 -0.315691 0.3025193 0.09808338 0.3027726 -0.42485556 0.34693515 -0.10035607 0.1838653 -0.14634675 -0.113036186 0.24869901 0.24599442 0.28729516 0.059443038 -0.1941852 -0.05570628 -0.14003257 0.095380105 -0.10482899 -0.07791928 -0.29693907 -0.060960084 0.20583653 0.105340675 -0.21889094 -0.014735013 -0.117801435 -0.062174194 0.16850737 -0.18299185 0.1712803 -0.21655849 -0.097626925 0.13465106 0.16300075 0.13534783 -0.17158599 0.16443971 0.070100695 -0.16453215 0.45063666 0.5497958 -0.08435632 -0.12616594 0.105117016 0.32190868 -0.13195014 0.12905917 0.11970969 -0.38976538 0.22931013 0.03194508 0.015320703 0.33752397 -0.30979472 0.030135557 -0.048098586
12 -0.015040107 -0.13658015 0.26107717 -0.19914104 0.20874867 -0.24979727 0.05006258 -0.38702968 0.31923598 -0.174331 0.2820224 -0.1414352 0.2605854 -0.22419682 -0.1505692 -0.3055928 -0.1549552 0.05200416 -0.11380225 0.15651025 0.13354973 -0.17005758 -0.2414602 -0.021244813 0.031114727 0.0217023 -0.08807454 0.10560054 0.027766535 0.21007684 -0.05255814 -0.1201113 -0.046933714 -0.14456931 -0.2443098 0.3292175 -0.014211532 0.15939865 -0.18363613 -0.2519217 0.28121385 0.001988592 0.05840159 0.19554888 -0.11368873 0.16500264 -0.026844645 0.44270402 0.52248967 -0.27894142 0.0231613 -0.04573699 0.012835464 -0.08758425 0.13798839 0.1068247 -0.3890608 0.42560032 0.168639 0.15694392 0.08499285 -0.07376639 0.22423273 0.22662376
11 -0.051248755 -0.105141655 0.24929793 -0.11770315 0.12257632 -0.1855125 0.060692787 -0.30536607 0.26477265 -0.14111127 0.2600471 -0.1548191 0.23106176 -0.16982481 -0.14322813 -0.23292165 -0.132554 0.07302719 0.0037746257 0.13037568 0.048147973 -0.116061285 -0.1663072 -0.065133125 0.019265592 0.028851515 -0.046947654 0.07422023 0.01950044 0.15827219 0.04648222 -0.14293031 -0.04443106 -0.12751356 -0.18052088 0.21617535 -0.08857606 0.16248958 -0.173497 -0.15645593 0.26578453 0.021902688 0.090512775 0.093465365 -0.040037166 0.12348337 -0.030886408 0.37546045 0.44977474 -0.23913093 0.025083994 -0.021712268 0.0065864995 -0.059046574 0.062101707 0.09296022 -0.32249212 0.3291964 0.12891111 0.107987575 0.14139858 -0.066532075 0.17714982 0.11048346
10 -0.061619822 0.29540926 0.26180762 -0.27451187 0.107937284 0.05707224 0.32452342 -0.28942755 0.28214023 0.11566796 0.3015545 -0.46131128 0.3596337 -0.070061766 0.19751132 -0.11989276 -0.12012034 0.2849566 0.32989943 0.28155217 0.017727874 -0.1733614 -0.027836563 -0.15871343 0.07674656 -0.10193721 -0.05383174 -0.3088724 -0.06755962 0.19093367 0.18064606 -0.24991803 -0.021903485 -0.10858835 -0.039509866 0.113690145 -0.23672666 0.17466795 -0.24161936 -0.035719384 0.15291376 0.1961088 0.15491092 -0.22258899 0.21012998 0.04551909 -0.17583877 0.44509003 0.54964983 -0.07087853 -0.12594195 0.12619862 0.33582103 -0.13025017 0.10386334 0.13412328 -0.39166665 0.18756445 0.013353181 -0.022809207 0.37511623 -0.31892273 0.01166143 -0.11181626
18 -0.19556268 0.06981957 0.19725518 0.05221246 -0.10005426 0.11952417 0.14402272 -0.06860127 0.13463719 -0.013947126 0.1541728 -0.27855885 0.24306169 0.007080417 -0.037109446 -0.034014046 -0.10346828 0.19616452 0.41767287 0.11918705 -0.14254211 -0.0032623676 0.02470155 -0.20669532 -0.035100497 0.033447072 0.05246599 -0.02696428 -0.055297565 0.06577769 0.39969522 -0.2931806 -0.05696054 -0.08325848 -0.026846092 -0.07681192 -0.37681627 0.17773959 -0.20195255 0.18612562 0.2251861 0.15556084 0.15915318 -0.21766196 0.18677303 -0.028847069 -0.08672335 0.22922878 0.31157547 -0.1067111 0.03539534 0.114745915 0.07881117 -0.07599342 -0.10408607 0.10410532 -0.2454303 0.069333166 0.0009322788 -0.07899967 0.3583484 -0.09347311 0.05128632 -0.23628066
9 -0.05899621 0.31332722 0.26553246 -0.2696731 0.106712826 0.072733395 0.33619636 -0.28194705 0.28321168 0.12724957 0.29027286 -0.46516764 0.355112 -0.05202032 0.2094869 -0.11434209 -0.12221414 0.28929907 0.33412117 0.29471165 0.011604452 -0.17909466 -0.0034545942 -0.16821596 0.091349795 -0.11256795 -0.05049094 -0.3412042 -0.08526312 0.18711181 0.18400526 -0.25101987 -0.014078304 -0.10775725 -0.029086376 0.10898386 -0.24474947 0.18291818 -0.2315881 -0.021948043 0.13790505 0.20702787 0.15652822 -0.23891445 0.22236684 0.027067319 -0.18346415 0.43736443 0.53358996 -0.061386857 -0.13252816 0.13931488 0.34045294 -0.13397422 0.09504074 0.12153625 -0.37777066 0.17668547 0.006494411 -0.022035649 0.38967833 -0.32363027 0.0071026557 -0.12828302
16 -0.28016552 -0.34577507 0.25477785 0.3855236 -0.25910622 -0.086814046 -0.10321435 0.043496925 0.0339493 -0.2676967 0.111128025 0.06763453 0.100738674 0.036568105 -0.49223605 -0.014699626 -0.10901812 0.016221218 0.35322553 -0.12530032 -0.4209876 0.14429341 0.011740186 -0.24667686 -0.15375052 0.23084922 0.21088637 0.4461613 0.0060264566 -0.011922553 0.56008136 -0.3234208 -0.1264614 -0.1428108 -0.10320138 -0.19547974 -0.36526075 0.23792514 -0.22324581 0.35056758 0.44173944 -0.024916582 0.26929808 -0.15432203 0.17509784 -0.05601892 0.077130035 0.112389624 0.14990461 -0.24997227 0.2783729 -0.041310433 -0.34242004 0.035017427 -0.38987848 -0.027382635 -0.10631963 0.10878284 0.06111654 -0.044056892 0.2700603 0.17264603 0.15200198 -0.236993
15 -0.17924465 -0.3873241 0.2965768 0.25570565 -0.12195905 -0.26458335 -0.09560624 -0.09911364 0.105255835 -0.27738523 0.14273837 0.14265521 0.088527925 -0.05628248 -0.5181442 -0.12384369 -0.12071153 -0.055305406 0.11649008 -0.083005115 -0.322061 0.07506069 -0.09901042 -0.16594528 -0.11573249 0.19257335 0.15362243 0.446308 0.041185208 0.0683368 0.32914907 -0.23077077 -0.15523146 -0.17803036 -0.16733427 -0.040565223 -0.16253416 0.22798817 -0.19299279 0.17563912 0.43793908 -0.11708723 0.24506192 0.010425849 0.09314733 0.0024877372 0.08005088 0.21837075 0.2217544 -0.2892187 0.2747809 -0.1328424 -0.33649388 0.04334464 -0.3042616 -0.04948444 -0.14651352 0.25061762 0.113844834 0.055373468 0.16658251 0.14703357 0.18984416 -0.021434765
17 -0.25864932 -0.05659422 0.2098308 0.22782885 -0.21478096 0.12834217 0.055398755 0.022148434 0.07654157 -0.0828414 0.12559088 -0.1995511 0.19569106 0.05872831 -0.16708834 0.0074196765 -0.11307168 0.17844188 0.4831156 0.022143904 -0.28108746 0.062098894 0.07209086 -0.2596994 -0.08463181 0.11391972 0.1332737 0.11567607 -0.04930484 0.010694963 0.54580915 -0.35152373 -0.05901731 -0.07147418 -0.024236329 -0.17655957 -0.45749143 0.19982135 -0.22533189 0.30478474 0.30421147 0.14458391 0.20961735 -0.2684558 0.2059631 -0.052208267 -0.032429002 0.15504201 0.21804844 -0.14875896 0.11179926 0.11539314 -0.06546012 -0.032586303 -0.22826403 0.067309655 -0.1820168 0.02208868 0.007900236 -0.10118054 0.37772188 0.004245596 0.06778044 -0.32393733
14 -0.07070159 -0.44502643 0.32889014 0.035139196 0.10783542 -0.4398564 -0.09424722 -0.29869768 0.22374761 -0.35191584 0.19886647 0.19768526 0.13134386 -0.2064898 -0.55223674 -0.31161276 -0.17481592 -0.1422256 -0.17453763 -0.019088736 -0.13634531 -0.035238408 -0.2736032 -0.040643655 -0.060704336 0.15836349 0.055149145 0.47757623 0.082440875 0.15070693 0.036932718 -0.14266069 -0.13341968 -0.2013842 -0.3014159 0.21002252 0.06321973 0.24033216 -0.19507451 -0.080849685 0.4716747 -0.20074527 0.16169341 0.26869842 -0.07063246 0.12302284 0.08390351 0.37653348 0.3913983 -0.36357805 0.2612542 -0.21735793 -0.30415842 0.013312758 -0.14506103 -0.017553477 -0.28196147 0.48093092 0.20627657 0.16090621 -0.0026680015 0.11689933 0.2998105 0.26865825
13 -0.06142362 -0.3586041 0.3128154 -0.0011169368 0.111134306 -0.4094535 -0.056328706 -0.30160627 0.23201819 -0.28317016 0.2131269 0.13276117 0.1442486 -0.19486196 -0.45767054 -0.27648306 -0.15288444 -0.095926 -0.13746329 0.020445574 -0.1130237 -0.06394147 -0.24734868 -0.05474093 -0.037829816 0.12720636 0.02924593 0.3820203 0.07693986 0.17293584 0.041284848 -0.14503776 -0.13269341 -0.18920363 -0.267419 0.20976011 0.03995604 0.2226981 -0.17824508 -0.095750175 0.42519554 -0.15900327 0.17022789 0.20988807 -0.044189822 0.10976986 0.0498297 0.38335654 0.40281126 -0.3239642 0.21943213 -0.1807756 -0.23525551 0.014025673 -0.107066914 -0.006086469 -0.27700827 0.4431599 0.17947648 0.15993391 0.03802036 0.075596996 0.2635347 0.22779171
