19 64
3 -0.08512791 -0.015114829 -0.20815425 0.14132331 0.19771488 0.10699162 0.16354547 0.16506751 0.09074142 0.28008807 0.064176515 0.17101851 0.023592222 0.0381635 -0.22767104 -0.1528883 -0.18522595 -0.10393508 0.19503748 0.022120064 -0.055503394 -0.21332712 0.15799114 -0.22509347 0.2559901 0.11321219 -0.39436552 -0.2169757 0.26524284 0.14813958 -0.24755882 0.1192118 0.26034528 -0.34194273 -0.056721542 -0.09131108 -0.184996 0.17023209 0.16651414 -0.0551148 0.08096577 0.23019677 0.0046392996 0.071426645 0.28271738 0.05555276 -0.053105008 0.20976017 0.2045404 0.20393205 0.23970513 -0.039082155 0.12510842 0.15917553 -0.044116706 0.09373905 -0.012482714 -0.29493064 0.23465613 -0.10657249 -0.046713207 -0.13716535 -0.0849737 -0.12506993
2 -0.15206523 0.065248206 -0.17186059 0.10068953 -0.026911097 0.002910351 0.2650875 -0.06500744 -0.102320455 0.3401151 0.002038331 0.15685226 -0.108282484 -0.14742011 -0.32710347 0.074792266 -0.23484921 -0.0801177 0.13006495 0.11861418 -0.10140815 -0.13128802 0.07963763 -0.16615534 0.16866012 0.20580415 -0.19641887 -0.045309078 0.19971284 0.17880827 -0.20359097 0.18221264 0.25422394 -0.26731703 -0.023226915 -0.020876026 -0.10188015 0.049457163 -0.15145081 -0.19801216 0.22299443 0.0030331272 -0.017814023 0.029988084 0.37302855 0.019893525 -0.09879942 0.23562112 0.03142916 0.17351113 0.08198481 0.024352819 0.062859654 0.29100233 -0.044988856 0.0047884732 0.0787662 -0.09943779 0.09143569 -0.007913487 -0.05032585 0.09897615 -0.09608514 -0.08106242
0 -0.13235193 -0.039695565 -0.3178232 0.22845836 -0.08482565 0.007072997 0.21437575 -0.09850011 -0.08217176 0.55881774 -0.16948155 0.25272864 -0.10640523 -0.19381379 -0.43550107 0.04327075 -0.374778 -0.21531856 0.27066272 0.32059962 -0.08038156 -0.2240208 0.13318133 -0.24573913 0.15373015 0.17258236 -0.1728358 -0.11278816 0.27701402 0.25249925 -0.34639966 0.27925813 0.18166713 -0.33714086 -0.297263 0.06012919 -0.07441761 0.048560794 -0.22560704 -0.24110913 0.25264454 -0.07429898 -0.012038773 0.12478935 0.42868805 0.098400116 -0.19962604 0.2062937 -0.010172472 0.122684434 0.16601631 0.14179243 0.13853161 0.5416661 -0.121637374 0.050145432 0.08049382 -0.18269846 0.034190606 -0.03387173 -0.09136536 0.18772164 -0.27257648 -0.06708639
4 -0.10480713 0.12114969 -0.099259526 0.07618029 0.42675307 0.18561646 0.20433062 0.28217456 0.17860134 0.09226637 0.20377955 0.14842665 0.027266404 0.06875526 -0.11446646 -0.17549625 -0.12446443 -0.12393792 0.1105997 -0.14572535 -0.08707588 -0.20595057 0.2260726 -0.24202113 0.3524511 0.15779185 -0.49006742 -0.22706981 0.26197872 0.11743086 -0.22597931 -0.025400728 0.28506204 -0.35067686 0.16955537 -0.21678464 -0.2575095 0.23227428 0.28920692 0.0434942 -0.017191801 0.36230052 0.082921535 0.12027298 0.28856474 0.04500906 -0.019231152 0.21976444 0.34595 0.27091014 0.28975797 -0.24671729 0.11338892 -0.15086953 0.034804832 0.079442106 0.0075895255 -0.40556613 0.4003966 -0.10322194 -0.045650493 -0.20820566 0.083344646 -0.13784043
8 -0.19313689 0.14388424 -0.11566574 -0.009396654 -0.15399912 -0.103599295 0.35097384 -0.16714253 -0.2515969 0.2753812 0.1340326 0.10586797 -0.17148654 -0.14171231 -0.39343968 0.18765612 -0.13642097 0.051958233 0.014788664 0.045986447 -0.12091498 -0.00055906613 0.012503095 -0.0902426 0.17512348 0.28253636 -0.17492858 0.060519397 0.12560496 0.14577234 -0.057572827 0.22157845 0.34505454 -0.22985512 0.17919385 -0.04039507 -0.114732094 0.018049985 -0.19826184 -0.2622443 0.2986464 -0.008456568 -0.03643036 -0.12327044 0.4092454 -0.054089542 -0.035161603 0.3119299 -0.01888479 0.24303932 -0.058836956 0.071265176 -0.007445847 0.22440147 -0.033876393 -0.0883501 0.12319378 0.09136505 0.032429125 0.031214673 0.008438009 0.14571999 -0.039153904 -0.07572671
5 -0.23401004 0.30829218 0.045884185 -0.07081458 0.26230353 0.09103842 0.36616585 0.067206606 -0.05290177 -0.03914787 0.32377404 0.0919332 -0.1222398 -0.061701726 -0.101468496 0.096064866 -0.04003789 0.02950766 -0.12648524 -0.25279757 -0.123099454 -0.007652231 0.13209303 -0.11776876 0.29774743 0.3037712 -0.27221972 0.036784735 0.124804065 0.113425925 -0.04304095 -0.041611783 0.34193236 -0.24180727 0.43457776 -0.21324612 -0.20763168 0.11196164 0.022246083 -0.081241526 0.1439794 0.23004521 0.066828795 0.0059699644 0.31387836 -0.03368875 -0.0014977581 0.30832747 0.2241797 0.30419973 0.038324036 -0.27924684 -0.09045486 -0.29159173 0.115035266 -0.03640884 0.07524818 -0.08737966 0.33935827 0.041598607 0.019356336 -0.017794827 0.24746248 -0.09103502
6 -0.29054293 0.35256138 0.0503333 -0.10570506 0.047599856 -0.030464072 0.45921153 -0.12556848 -0.2323016 0.0023879812 0.34660167 0.067936584 -0.22064991 -0.16307 -0.23257534 0.2514075 -0.043850712 0.11960673 -0.16957945 -0.19831347 -0.17637408 0.06960086 0.037221737 -0.06576146 0.2406397 0.39294243 -0.19694495 0.14997275 0.078827254 0.11662364 0.046484593 0.050965447 0.41603595 -0.21088469 0.4877241 -0.15545398 -0.18884343 0.033045024 -0.1787431 -0.19704646 0.27707037 0.10514395 0.025894884 -0.10983305 0.4032927 -0.08991738 0.00962782 0.3569321 0.091706716 0.3410661 -0.09068574 -0.18197408 -0.12915635 -0.17470655 0.10380005 -0.13135809 0.13915579 0.10838116 0.22198686 0.104058675 0.019945562 0.11890487 0.23382932 -0.08571658
7 -0.26705897 0.31869966 0.02096145 -0.11700006 -0.07099322 -0.12534402 0.4557816 -0.17610542 -0.3094892 0.05821351 0.33148468 0.061363064 -0.19432792 -0.13977164 -0.3219086 0.28461942 -0.03138546 0.16550432 -0.14388919 -0.13080867 -0.17290407 0.078939445 -0.020690411 -0.031756934 0.21786608 0.3882572 -0.20791684 0.13914181 0.089728326 0.11114469 0.061564036 0.14657599 0.43766776 -0.18266903 0.47293434 -0.11273088 -0.17583448 0.034088712 -0.18502554 -0.24725999 0.28762794 0.08451859 0.008354753 -0.18683569 0.41016957 -0.12970668 0.038643457 0.35208163 0.03441716 0.34983 -0.12170854 -0.057993796 -0.08738261 -0.03983864 0.044556387 -0.15020368 0.14393559 0.18564376 0.13592756 0.09296927 0.039780386 0.11813654 0.16537671 -0.08568512
1 -0.12611452 -0.062081613 -0.32623 0.210181 -0.108193524 0.023200594 0.22348602 -0.08456559 -0.07143904 0.56223714 -0.16512126 0.23877278 -0.113248095 -0.1840229 -0.41453245 0.023529531 -0.36681384 -0.19294138 0.24511059 0.3123944 -0.08372791 -0.21666011 0.14077806 -0.23933472 0.15677916 0.15703811 -0.15608153 -0.11090305 0.26429355 0.24248037 -0.32567233 0.2673051 0.19225003 -0.33888036 -0.29708046 0.061553348 -0.08037207 0.042402066 -0.19488573 -0.24374117 0.25455546 -0.07714005 -0.036653604 0.10673067 0.40136132 0.083932325 -0.20192447 0.2287633 0.0062345336 0.12155821 0.15625788 0.13979973 0.116541006 0.53513235 -0.10989111 0.068476886 0.059196074 -0.17271627 0.030258268 -0.033228707 -0.07193281 0.16758028 -0.27920234 -0.06549925
12 -0.06378939 -0.059674695 -0.23995546 0.18006223 0.2544047 0.16103551 0.13841456 0.2369981 0.15993014 0.31392378 0.02486019 0.18119805 0.052505966 0.07160784 -0.21991707 -0.23999496 -0.22354142 -0.15904965 0.24823706 0.034921486 -0.058734067 -0.26095867 0.20559967 -0.2674448 0.28098834 0.07806636 -0.4497039 -0.29621142 0.30384934 0.14635122 -0.3043622 0.10305541 0.25210246 -0.3821073 -0.11910722 -0.112492524 -0.20157626 0.1931896 0.2415984 -0.017640004 0.04042001 0.27091467 0.0012557637 0.112912625 0.28283402 0.08060809 -0.085608006 0.19729002 0.25429136 0.19615273 0.31372878 -0.052917752 0.16968566 0.17541583 -0.06792122 0.14240818 -0.03296489 -0.39820805 0.26517132 -0.15468274 -0.05792887 -0.1902356 -0.12925674 -0.12736678
11 -0.09772856 -0.00012222443 -0.1947027 0.13388914 0.18360591 0.10798616 0.17714901 0.14884475 0.06441528 0.2828646 0.053661853 0.16316612 -0.0062265983 0.0014489804 -0.22319101 -0.1359185 -0.19134225 -0.1123377 0.17679457 0.020348547 -0.073422186 -0.19127722 0.16169402 -0.2147927 0.24188943 0.12873274 -0.36149475 -0.19654441 0.23832978 0.14535378 -0.24219793 0.10931922 0.25334123 -0.3337222 -0.043329068 -0.08444557 -0.17747968 0.14827344 0.11174027 -0.074506424 0.09818658 0.19661005 -0.0007586983 0.06832226 0.2953623 0.04401241 -0.08158552 0.22208445 0.19686437 0.18997273 0.22859775 -0.042719997 0.11843884 0.14385842 -0.048500273 0.08743357 2.3480643e-05 -0.27926984 0.22100753 -0.092688456 -0.043982144 -0.09920022 -0.09307753 -0.114820085
10 -0.16325015 -0.036164414 -0.31336242 0.20266089 -0.16604245 -0.011999757 0.26448226 -0.14109758 -0.13149387 0.57238615 -0.1568339 0.23427436 -0.14825125 -0.21860647 -0.46332774 0.082277425 -0.371554 -0.16585416 0.2337922 0.31648517 -0.099829 -0.18690148 0.11054587 -0.22419699 0.14472546 0.19252013 -0.13191679 -0.06895578 0.25885597 0.23720053 -0.30211255 0.2975586 0.22059648 -0.3366063 -0.26449433 0.077012986 -0.07234768 0.022038376 -0.26290804 -0.28234482 0.2995026 -0.10757808 -0.04290859 0.077764995 0.44001758 0.06637493 -0.19466913 0.2541743 -0.031709105 0.14128879 0.10856992 0.15443401 0.09495122 0.5628649 -0.10106526 0.0289282 0.07701958 -0.116961636 0.013591462 -0.007226586 -0.07841634 0.20738061 -0.26020843 -0.07036956
18 -0.1880842 0.14743482 -0.10582721 0.0063331123 -0.1379566 -0.10749399 0.35467154 -0.17992473 -0.25040445 0.27112788 0.105761304 0.11063452 -0.16270375 -0.17607489 -0.3756219 0.20731135 -0.15946944 0.027737362 0.035211362 0.069733225 -0.13607013 -0.030423056 0.0017621289 -0.08911306 0.14526977 0.28963703 -0.16358048 0.06346453 0.13713764 0.15573326 -0.071280584 0.21523431 0.32565114 -0.21504429 0.1453042 -0.0109097995 -0.11437682 -0.0003866091 -0.23118122 -0.25884858 0.29590142 -0.038414855 -0.035889655 -0.09923975 0.40210944 -0.04511634 -0.054881573 0.2704468 -0.047723655 0.2404796 -0.042059254 0.05141752 -0.0028278108 0.2600552 -0.02315269 -0.08675537 0.12569313 0.07433887 0.040884744 0.050134443 -0.02169052 0.1678878 -0.027696032 -0.07063328
9 -0.16668008 -0.03395921 -0.3028065 0.20343624 -0.17932785 -0.031204564 0.26916775 -0.15089233 -0.14460257 0.57540625 -0.1633939 0.23328242 -0.15508251 -0.22842443 -0.47243083 0.10145847 -0.37031978 -0.1744646 0.22556448 0.33440435 -0.088761345 -0.18416691 0.11576834 -0.2068322 0.13530105 0.20256713 -0.11628033 -0.051313087 0.23968986 0.24102268 -0.29208666 0.2992909 0.20375489 -0.3313994 -0.2685643 0.09129989 -0.06986106 0.01657004 -0.28889048 -0.29257643 0.2999976 -0.11667031 -0.042773027 0.08366776 0.43398893 0.073597774 -0.19765626 0.2490687 -0.042545862 0.13379441 0.10281621 0.1713571 0.09404223 0.56728405 -0.116031066 0.024856262 0.092351854 -0.09858878 0.0038137217 -0.011640028 -0.0692958 0.23770484 -0.2703505 -0.062791914
16 -0.29907766 0.41805547 0.12288137 -0.15517387 0.12812307 -0.048312925 0.4730512 -0.0828827 -0.22404318 -0.100304544 0.45254 0.04161137 -0.19869459 -0.11092223 -0.20425467 0.25640097 0.02796956 0.17408456 -0.21461312 -0.30577347 -0.16520397 0.09357871 0.022143302 -0.045460746 0.29172152 0.4094161 -0.26633927 0.15688153 0.07860789 0.09293683 0.07979007 0.028428398 0.4653445 -0.19666845 0.6366775 -0.21876243 -0.22025387 0.060871378 -0.09554765 -0.17261478 0.23009391 0.19502807 0.05812778 -0.14101033 0.38775915 -0.1314135 0.076324396 0.36752635 0.13198684 0.38316715 -0.09059572 -0.2393196 -0.14799532 -0.30784872 0.12018975 -0.15652725 0.14404435 0.11477095 0.27353698 0.103517674 0.054231998 0.048097443 0.3251144 -0.09893161
15 -0.22716516 0.33432114 0.07000663 -0.08715249 0.30462402 0.07874409 0.3813033 0.07539869 -0.04425591 -0.08715103 0.37816635 0.08529318 -0.095671855 -0.044914432 -0.10715636 0.095266245 -0.012093806 0.05364866 -0.12054465 -0.29606366 -0.12961277 -0.016891884 0.12549646 -0.12656224 0.32327673 0.32185683 -0.33720627 0.022498244 0.14035724 0.11120865 -0.039635506 -0.043199625 0.3812788 -0.24669096 0.50044614 -0.23288389 -0.24158788 0.13461784 0.06662545 -0.06075819 0.12596041 0.2737609 0.06979672 -0.0033058051 0.3244016 -0.041457035 0.03165675 0.3059492 0.2331888 0.34575447 0.046564266 -0.30895373 -0.07160209 -0.3290286 0.11183319 -0.061461266 0.07734192 -0.114082284 0.37053 0.031100707 0.017710894 -0.057913747 0.28480208 -0.111758955
17 -0.26056248 0.26575035 -0.015579881 -0.07951529 -0.13738029 -0.13892052 0.4269048 -0.21665843 -0.31548318 0.14780466 0.24459888 0.07610282 -0.21926634 -0.17411171 -0.36623746 0.28292045 -0.07855236 0.13329574 -0.082663774 -0.05339615 -0.1663221 0.06898397 -0.026221018 -0.047860824 0.18502752 0.36206684 -0.16692865 0.13902092 0.094718665 0.119073436 0.022853171 0.1715397 0.40521902 -0.1899505 0.36033723 -0.075101785 -0.14372398 -0.00027539898 -0.25745383 -0.26268354 0.3197605 0.009476439 -0.015307089 -0.17415772 0.4258216 -0.10968764 0.0077676745 0.33906367 -0.018353848 0.30594933 -0.12361681 -0.0071349614 -0.07158817 0.07431529 0.026345165 -0.14318086 0.1499909 0.1825574 0.073007494 0.0848293 0.0207375 0.16847499 0.09715192 -0.08476166
14 -0.13162614 0.19504173 -0.05614567 0.03514153 0.52345747 0.22005053 0.24934475 0.31093693 0.1946293 -0.012124605 0.2932564 0.13467099 0.05037077 0.09042728 -0.046881076 -0.15995815 -0.06859568 -0.08874199 0.048702046 -0.25540966 -0.08958833 -0.19160795 0.23049156 -0.23371059 0.38371313 0.18546236 -0.53943294 -0.21910623 0.25574836 0.11645777 -0.2000798 -0.06242985 0.33535773 -0.34822667 0.30156076 -0.2730632 -0.28475678 0.26639858 0.3570277 0.074562624 -0.042744804 0.44071037 0.114579566 0.124563456 0.2802209 0.036496002 0.027463848 0.21456982 0.38881022 0.32603902 0.29539537 -0.31743944 0.07790971 -0.28167588 0.0775343 0.06313562 0.006317238 -0.4171985 0.48733217 -0.07521662 -0.028730582 -0.25042015 0.20407324 -0.13855141
13 -0.12697193 0.15398885 -0.07077608 0.047928855 0.44971475 0.2088238 0.23997566 0.27078888 0.17351714 0.051080875 0.2318996 0.15596758 0.017137283 0.05191872 -0.08576617 -0.14564438 -0.11234301 -0.09915004 0.064447634 -0.19716366 -0.09323815 -0.1921671 0.22835346 -0.23538445 0.36063534 0.17889851 -0.47486022 -0.1922408 0.25209716 0.12486761 -0.20856781 -0.03746655 0.2956652 -0.34523124 0.22677028 -0.22766958 -0.259705 0.23475209 0.28350174 0.045419063 -0.010349993 0.3749305 0.08178038 0.1313712 0.28093067 0.052740507 -0.0071867723 0.22170107 0.3439393 0.28726235 0.26678315 -0.2767909 0.07579931 -0.19839315 0.059234962 0.08048998 0.0058248728 -0.3890547 0.43134415 -0.06470393 -0.03854218 -0.20381214 0.14113559 -0.12328316
